svm_type c_svc
kernel_type rbf
gamma 3.0000000000000001e-05
nr_class 2
total_sv 47
rho -3.1306689492405191
label 1 0
nr_sv 22 25
SV
300 1:4 2:9 3:1.74875 4:2 5:2 6:19 
128.01709524530096 1:1 2:7 3:1.3200001 4:2 5:2 6:21 
300 1:1 2:2 3:0.70249999 4:1 5:1 6:4 
300 1:2 2:6 3:1.1224999 4:2 5:2 6:17 
300 1:2 2:5 3:0.94875002 4:1 5:2 6:15 
49.121319734196554 1:1 2:3 3:0.89437503 4:1 5:2 6:5 
300 1:2 2:3 3:0.44874999 4:1 5:1 6:10 
300 2:1 3:0.024374999 6:1 
300 1:1 2:3 3:0.52875 4:1 5:1 6:7 
300 1:1 2:2 3:0.72624999 4:1 5:1 6:4 
300 1:1 2:7 3:1.303125 4:2 5:2 6:21 
300 1:2 2:4 3:1.21 4:2 5:2 6:10 
300 1:66 2:70 3:0.91000003 4:5 5:13 6:187 
300 1:1 2:3 3:1.021875 4:1 5:1 6:8 
300 1:4 2:5 3:0.55000001 4:1 5:4 6:19 
13.981312926711354 1:29 2:69 3:0.85000002 4:6 5:9 6:162 
300 1:5 2:6 3:0.38062501 4:5 5:4 6:18 
300 2:1 3:0.100625 
300 1:1 2:2 3:0.674375 4:1 5:1 6:4 
252.88243098828272 2:1 3:0.103125 6:1 
300 1:2 2:5 3:1.12875 4:1 5:2 6:12 
300 1:3 2:7 3:1.266875 4:1 5:2 6:23 
-300 1:2 2:5 3:0.37375 4:1 5:1 6:11 
-300 1:3 2:5 3:0.609375 4:1 5:1 6:12 
-300 1:1 2:4 3:0.59937501 4:2 5:1 6:9 
-300 1:1 2:4 3:0.700625 4:1 5:1 6:11 
-300 1:2 2:5 3:0.78187501 4:1 5:1 6:10 
-300 1:6 2:8 3:0.96812499 4:1 5:2 6:20 
-4.5822799390677167 1:133 2:136 3:1.14625 4:2 5:10 6:271 
-300 1:3 2:5 3:0.19750001 4:1 5:1 6:11 
-6.7600390811183466 1:30 2:134 3:1.3 4:2 5:4 6:219 
-300 1:1 2:4 3:0.91250002 4:1 5:2 6:9 
-300 1:3 2:4 3:0.030625001 5:1 6:11 
-300 1:4 2:6 3:0.95375001 4:1 5:1 6:12 
-300 1:4 2:7 3:0.51499999 4:1 5:1 6:13 
-35.894197619635946 1:5 2:8 3:0.99437499 4:1 5:1 6:19 
-300 1:2 2:3 3:0.025 6:7 
-2.5952354203301824 1:252 2:255 3:0.78187501 4:1 5:5 6:373 
-300 1:3 2:5 3:0.36625001 4:1 5:1 6:10 
-300 1:3 2:6 3:0.293125 4:1 5:1 6:12 
-300 1:63 2:68 3:1.71 4:3 5:5 6:184 
-300 1:3 2:6 3:0.95687503 4:1 5:1 6:12 
-6.8447551503201485 1:99 2:103 3:1.233125 4:2 5:3 6:243 
-300 1:3 2:5 3:0.0093750004 5:1 6:7 
-300 1:2 2:3 3:0.33875 4:1 6:7 
-87.325651684019249 1:4 2:8 3:0.64187503 4:1 5:1 6:15 
-300 1:1 2:3 3:0.926875 4:1 5:1 6:8 
